digraph Tree {
node [shape=box, style="filled, rounded", color="black", fontname="helvetica"] ;
edge [fontname="helvetica"] ;
0 [label="R2 <= 0.9\ngini = 0.5\nsamples = 2483\nvalue = [1951, 1937]\nclass = Normal", fillcolor="#fffefe"] ;
1 [label="gini = 0.0\nsamples = 1246\nvalue = [1951, 0]\nclass = Normal", fillcolor="#e58139"] ;
0 -> 1 [labeldistance=2.5, labelangle=45, headlabel="True"] ;
2 [label="gini = 0.0\nsamples = 1237\nvalue = [0, 1937]\nclass = Risk", fillcolor="#399de5"] ;
0 -> 2 [labeldistance=2.5, labelangle=-45, headlabel="False"] ;
}